{"neuronCounts":[5,10,8],"classes":["car","fish","house","tree","bicycle","guitar","pencil","clock"],"network":{"levels":[{"weights":[[2.6503382639073108,-2.2152322874245716,-0.2996676416176993,2.6910813436968284,-1.028924170212905,-2.4767603259839843,-2.895547233681959,5.056462407616209,-3.738318457799763,2.060030269444192],[-2.0407513885313695,2.375407434932297,-1.4227583284885554,-0.9126120997364783,-3.758614465344665,1.9246128018923128,2.40751501857607,1.5687547992451238,2.1356070641827887,-2.3696509665655703],[-0.13232796562106663,0.27422055244124544,-4.225641248906675,-2.9379239168889657,-1.618784093042578,-2.384196156384815,-3.0036145778149796,-0.19266640787066275,-4.195974700730118,-1.108667249415363],[-1.1458631663847219,-4.467833646390118,3.0404725441142864,1.6630929042683444,2.052428677966285,1.1857809493538223,1.4012303787094147,-4.473759109832324,3.3148478124576823,-0.33931570347773327],[5.181794008813601,5.435779739989344,1.4814808393518102,-3.8715500359336357,0.13412792613197844,0.34983626480170704,2.2255899080335504,4.40535095398607,1.0175632678619648,5.171905448963872]],"biases":[-2.9207231522782795,1.1163953776916313,-1.2599161694189653,0.3872465077864528,1.0728615345644144,-0.060157397792904854,-0.3491691174464104,-1.5142010447211076,-1.4586877048924618,-0.9277078154236952],"inputs":[0.3739130434782609,0.45724907063197023,0.02916578163937267,0.8042126785568171,0.31985127414527975],"outputs":[-0.9721944090350131,-0.43997964143377605,0.6488299109889689,0.7572169810374281,0.5481881958060897,0.711273061150563,0.8896248409292492,-0.8007245120323485,0.7569113724383636,0.10764834907237625]},{"weights":[[0.8582762377471521,1.5479753762267274,-4.533642362250031,4.08730271824066,-1.9642644515954153,-1.6987498927894549,-1.8341595766660623,1.088473686207772],[-0.6596034502268919,-3.7346462721689675,4.56711888139774,-1.7993289325609296,-2.148675179470788,1.0731368824935232,2.2630675382385923,-1.3850849791611695],[0.5811818143593518,-1.1876925000930532,4.469967500728569,0.14628536524845243,2.8285514235574567,-4.413667597444592,-1.2824881527941614,1.6296029868601627],[2.8531267880392757,2.4889773225478486,2.0530830797587294,1.18542218994012,2.4473553859431854,-2.55534652812406,-1.7733438167453364,-2.1745777186834068],[3.2465215068731372,-1.346801108284092,2.218399282532333,-3.1204407636388742,1.6124135573668779,-0.6851318326214759,-1.7489098738712896,3.0686485587770447],[-2.0206626108175434,-2.2478981231909887,0.9394416397072735,2.693886297640755,-0.7564876813688735,-0.39732009286747555,-1.4039028740407722,3.166178898861645],[-2.1696940466104335,-1.8751475163998828,-0.4596354833310454,2.3863258763318793,2.0037023732595087,-0.7149133003244156,-2.0204483783692497,3.7995049909403935],[4.623073289930847,-3.4058964931015625,-2.551129636444652,-0.7650017742573187,2.3341719411463453,2.092922278721391,-0.645056580222761,-3.30452680627116],[-3.3682899820176417,-0.31056894825765713,1.297676269191007,2.64941927936767,-3.430817875743016,-0.8961748703202204,-3.0622719384564983,3.106684063318818],[-0.8383590796171304,3.8876658769030894,1.138515586579743,-3.2905930279576903,0.6787392465615906,3.071871817440399,-2.5212241353164235,-0.6060183014775166]],"biases":[-0.3986868721929145,2.875253483277429,-1.1749596395454593,2.360278316577539,-1.1700953056437842,-0.08106879570076463,0.4636780191238035,0.4841911071038955],"inputs":[-0.9721944090350131,-0.43997964143377605,0.6488299109889689,0.7572169810374281,0.5481881958060897,0.711273061150563,0.8896248409292492,-0.8007245120323485,0.7569113724383636,0.10764834907237625],"outputs":[-0.9999937077362766,0.9953683840612128,0.9999999977421263,0.9998541400029785,0.9960210327860323,-0.9999983959718894,-0.9999972651026334,0.9999999998604052]}]}}