const model = {"neuronCounts":[5,10,8],"classes":["car","fish","house","tree","bicycle","guitar","pencil","clock"],"network":{"levels":[{"inputs":[0.3739130434782609,0.45724907063197023,0.02916578163937267,0.8042126785568171,0.31985127414527975],"outputs":[1.1968362351780306,-1.6820478307459603,-0.9581808465963858,0.7679033318984421,-0.4994092001891672,0.8006445711147483,-0.3772883275788582,1.4692301530113019,0.279804493317984,2.242875411734544],"biases":[0.6244991822794006,-0.5802352307598704,-0.9435064816566969,0.2135526331417159,-0.5194004458222143,-0.08210043267148404,0.023004004761291164,0.959763777753349,0.7720939172268766,0.9345095004700679],"weights":[[0.8775912894768099,-0.4450693314763896,-0.35496261178990274,0.5259656522166463,0.07658603048037804,0.8127070987599394,0.8322726593342327,0.3823467962851663,0.9466754527377379,0.6511026868079988],[-0.20102207712258924,-0.8619669333821998,-0.1829599814888052,-0.2855625108994433,-0.2652803827762775,0.7415811676395632,-0.25755742198292975,-0.4598498895953558,-0.7625460584565471,0.012549365741016949],[0.6353662746703743,0.36974215470770133,-0.9046031365075655,0.8022480661384481,0.4585195334706169,-0.028313845043893338,-0.13427241891359998,0.0068649224154659905,-0.5328371916136678,0.26863434285700016],[0.29307466388247994,-0.5108959139504083,-0.04526570329664592,0.9047374048968857,0.028114090104942147,-0.09287309246489217,-0.7213089874354011,0.39720580484961543,-0.45747236531216595,0.9385411883860928],[0.25601294412176534,-0.44138214047438495,0.8269336359709265,-0.8214474390164774,0.23970875299892436,0.9857438712809774,-0.030389282277263785,0.8039039120448748,-0.3568676033464424,0.9271505494580135]]},{"inputs":[1.1968362351780306,-1.6820478307459603,-0.9581808465963858,0.7679033318984421,-0.4994092001891672,0.8006445711147483,-0.3772883275788582,1.4692301530113019,0.279804493317984,2.242875411734544],"outputs":[-4.440103982129877,0.42815158712895984,1.8974107562995497,-1.109114369643859,1.781247213021818,-0.5808054347507763,1.0286712371732456,-0.35006757425723956],"biases":[-0.9409100407025686,0.0857234778478504,-0.09554743889792006,0.21740469609521673,-0.49299844265655324,-0.47462163117070366,-0.2255333950913987,0.2572785624677305],"weights":[[-0.6998342991350048,-0.7840483688562352,-0.11502497220732932,-0.6300491637369858,-0.2764329886935135,0.8601540605265292,0.3453038024851547,0.8677093211820956],[0.2087702393588624,0.35173770102991364,0.10464041945497371,0.07595769488235504,-0.43361132160022553,-0.40518675940574944,-0.6822926579366726,0.26262420889515425],[0.1302366373129642,-0.06109808697253927,0.31647521258990485,-0.6589505718716984,0.5831084936173521,0.5659623532184455,-0.6620189756474733,-0.5899486920698647],[0.7160968227234701,-0.09553751715937508,0.689342364961369,-0.3188443213821599,0.7691258019720566,0.07334977028019907,-0.39458628889691383,0.1444812625542582],[0.5619170897876904,-0.4239587521545851,-0.9019798013725309,0.34642026704035,-0.09050873972968221,-0.7783811647562979,0.2236595047465899,-0.4917007070564847],[-0.736216786852661,0.8529774079878938,0.41077076687992564,-0.5922061376885814,0.3315508764597741,-0.7186964207672455,0.7539087375109941,-0.40481435443966873],[0.7303894626172593,-0.9213865741543779,-0.4369469587724759,0.6447616969442467,-0.016545318576267842,-0.4106791279889346,-0.7118828125018206,0.2716450218965707],[-0.9576197832040876,-0.25054193262038327,0.7393993177902964,0.5982759724086142,0.2477368242296567,-0.24904961581858753,-0.7645144746095491,-0.19932935361031623],[0.28331634039765374,-0.12474830242155344,-0.566051509462353,0.07476420520965998,0.09910898162895965,-0.3118976678889003,0.5119514663089819,-0.47255209638669493],[-0.11691046966877527,0.4672509518150334,0.09290272103560282,-0.37485471351090816,0.506150986217528,-0.377326041930202,-0.18661096002620203,-0.5681130728666006]]}]}};